<?xml version="1.0"?>
<opencv_storage>
<my_nn type_id="opencv-ml-ann-mlp">
  <layer_sizes type_id="opencv-matrix">
    <rows>1</rows>
    <cols>4</cols>
    <dt>i</dt>
    <data>
      15 10 10 4</data></layer_sizes>
  <activation_function>SIGMOID_SYM</activation_function>
  <f_param1>6.6666666666666663e-001</f_param1>
  <f_param2>1.7159000000000000e+000</f_param2>
  <min_val>-9.4999999999999996e-001</min_val>
  <max_val>9.4999999999999996e-001</max_val>
  <min_val1>-9.7999999999999998e-001</min_val1>
  <max_val1>9.7999999999999998e-001</max_val1>
  <training_params>
    <train_method>BACKPROP</train_method>
    <dw_scale>1.0000000000000001e-001</dw_scale>
    <moment_scale>1.0000000000000001e-001</moment_scale>
    <term_criteria><epsilon>9.9999997764825821e-003</epsilon>
      <iterations>1000</iterations></term_criteria></training_params>
  <input_scale>
    3.5512429972484061e-001 -4.2718772051095350e+001
    1.6782801342418080e-002 -2.6772763841492444e+000
    4.8477050049512471e-002 -8.7670745014543296e+000
    3.6208600462639962e-002 -6.0866657377697777e+000
    4.4489753691570592e-002 -7.5932887113088112e+000
    3.6092675762123688e-002 -6.3360692300408141e+000
    3.2044215633124144e-002 -5.6501963215106148e+000
    3.4073589872638893e-002 -5.9858779008758383e+000
    3.2848561788412993e-002 -5.4791401063072875e+000
    3.1646213367496408e-002 -5.1559593128993528e+000
    2.6253796255487617e-002 -4.4145758403602429e+000
    3.1542484885024452e-002 -5.2660178515548317e+000
    6.7249811957162738e+003 -7.5656459589852414e+000
    4.5499075118979231e+007 -9.6296848986835826e-001 1.
    -4.6304171467979895e-011</input_scale>
  <output_scale>
    5.2631578947368418e-001 4.9999999999999994e-001
    5.2631578947368418e-001 4.9999999999999994e-001
    5.2631578947368418e-001 4.9999999999999994e-001
    5.2631578947368418e-001 4.9999999999999994e-001</output_scale>
  <inv_output_scale>
    1.8999999999999999e+000 -9.4999999999999996e-001
    1.8999999999999999e+000 -9.4999999999999996e-001
    1.8999999999999999e+000 -9.4999999999999996e-001
    1.8999999999999999e+000 -9.4999999999999996e-001</inv_output_scale>
  <weights>
    <_>
      -3.0739120906510795e+000 1.2630042957553314e-001
      5.1169414208158248e-001 -2.6642841149204038e-001
      1.3031789761458603e+000 -1.9519713715259550e+000
      7.1129005700463921e-001 -1.8606262387304748e-001
      -2.1495013422570497e+000 1.0256149842454327e+000
      9.8394344215867025e-001 3.7614063677297521e-001
      1.9285253492272994e-001 5.6579942220500545e-001
      -9.3895844533452866e-001 -6.2119458249515813e-001
      -1.7431660396851743e+000 2.2485794515009703e+000
      -4.3831059488184593e-001 9.4597655449441986e-001
      -2.2134745990946407e+000 2.5638485282660328e-001
      5.7487146273854639e-001 -7.6298997053783915e-002
      -1.2912308380368069e+000 -5.1818428921006243e-001
      -1.0399818028614607e-001 -7.8459012422272059e-003
      -5.7437467739825632e-001 7.7833921350772894e-001
      -2.5923936712410138e+000 3.2480605151405340e-001
      -1.4674075922952057e-002 -1.4955019680924067e+000
      4.9907639647610508e-001 -7.3035410977583570e-001
      8.6505043772732382e-001 1.6983679968523990e-001
      -7.3600167661835725e-001 -1.1864420271018885e+000
      3.0601622826549000e+000 -7.6322918937687323e-001
      -4.5607053581871487e-001 2.5539056437854263e-001
      -1.4429642345428835e+000 8.1303794624093639e-001
      -2.7712871797956240e-001 9.8612698680936073e-001
      -1.0752063406920839e-001 -2.5518269102656166e-001
      2.0365133628085105e-001 -1.5248526889814018e-001
      -2.2385314473414936e-002 3.2686899900910484e-002
      -3.5511973755553894e-001 -5.2800273536962505e-001
      -5.6322251772069098e-001 -2.6099183053633790e-001
      2.0043576072694553e+000 6.1497266197465206e-001
      -3.9999561247833464e+000 1.3401688923619157e+000
      7.4787447543523511e-001 -5.9578568609913296e-001
      -8.7002114451962309e-001 -1.6964042819901255e+000
      -1.3461047389666111e-001 2.1729832540650156e+000
      -1.4208444835861402e+000 -3.7060184236026078e-001
      -1.7648332300152156e+000 6.6164138844447973e-001
      -6.5799947628398775e-002 2.9038280231315144e-001
      -1.2371454735751821e+000 -3.2601391636112598e-001
      4.9949242613608380e-001 2.8893148846904199e-001
      -1.5066483347846802e+000 1.5698280819110749e-001
      -2.4145636028014703e+000 3.1752826053372279e-001
      5.1276714383738889e-002 -1.2164880583083364e+000
      -3.1863618195725613e-001 5.2019670684007391e-001
      1.6136259183156918e+000 6.5654453026135251e-001
      -2.5683878396284343e+000 4.0444630196973713e-001
      -2.7799478843221577e+000 -9.1904648210083234e-002
      4.2395068017979415e-001 -1.3802343495020362e+000
      8.7909324022873736e-001 -1.5742758095162772e+000
      2.9368827406879300e-001 2.4837487111292081e-001
      -4.8997006455123276e-001 -4.9601518064840017e-001
      6.7344125666914501e-001 1.2584957831141508e+000
      5.5559167933495683e-002 4.0042250072800167e-001
      8.2800226934444732e-001 5.7841276891938942e-001
      -1.4466396243320094e+000 -1.3787317617715604e+000
      -9.9147226975115532e-001 -1.2978543171115018e+000
      9.2961662814999313e-001 4.3913075575121785e-001
      -9.6659201095300362e-001 5.1377722823470362e-001
      -1.0100292537666555e+000 1.9460182970787983e+000
      1.0427009585705151e+000 -1.8608092908401663e+000
      4.8712415310624391e-001 -8.6250134001795231e-001
      -1.1200806083180601e+000 -2.4608524908421037e-001
      2.6497294401776239e-001 -8.8047885283445293e-001
      1.6140486783413972e+000 9.0355296190017875e-001
      2.5700477529697512e+000 -9.6171628664482822e-001
      -3.0862141526730227e+000 5.1592523585901096e-001
      1.5096899429819188e-001 7.9021031472908454e-002
      -3.4293891629737963e-002 -7.5165870377424471e-001
      -1.4676868950504067e+000 -1.9822109840480973e-001
      -1.7610430636033738e-003 9.6146653446970087e-001
      1.5142336648650705e+000 -2.7279257519386396e-002
      -4.1162234274925748e-002 6.8814738358186661e-002
      9.8827239698027675e-002 -6.9391039758164311e-002
      6.8287267383168565e-002 -2.0343810550255748e-002
      1.0829150908920111e-001 -1.0658080745042747e-001
      -8.3047196524537847e-002 8.7525553195737585e-002
      -1.2767081248929892e+000 -1.1276364871258835e+000
      -1.3421439351360506e-001 -4.7042061889048831e-001
      -1.5739594844929775e-001 4.1487011945434693e-001
      1.6150596640541193e+000 -6.0538579886442101e-001
      7.6210813263860600e-001 -4.2752205560578133e-001</_>
    <_>
      -2.4914312739960494e+000 -2.5387171655319007e-001
      9.4604111548517544e-001 -4.5453447333824470e-001
      -1.7284870287165296e-001 -6.5967860805987522e-001
      6.1628784497509470e-001 -7.2357679756786142e-001
      1.4013611220742486e-002 -3.0460785349732294e-001
      9.5426043992133847e-001 2.3593523761333929e-001
      6.1196543228215294e-001 -1.0000184260742022e-001
      -5.8108124032003328e-003 6.0696820635674564e-001
      -8.6908348114598688e-001 3.2150844768973064e-001
      5.1404504350520552e-001 -3.8294975155592248e-001
      6.9412282852865737e-001 3.0210668016289532e-002
      -5.4065173502463859e-001 1.4665677879811917e-001
      9.6312904392246573e-002 1.2183166838055862e-001
      -6.5564454218935742e-001 1.1236273656183157e-001
      6.5379483718700365e-002 3.0457234892575796e-001
      -2.1112121663642820e+000 -5.4538509661542767e-001
      9.9099982525769226e-001 8.1254187855088811e-002
      -1.0452087166716515e+000 3.7444396313539052e-001
      2.1056682158508461e-001 -1.2238803927688831e-002
      1.3839198139427553e-001 -1.1181556409124954e-001
      1.2417209293454290e+000 -4.4348790126141535e-001
      9.7412671111127158e-001 6.4690019064229193e-002
      -1.4338240912128375e+000 1.6257170481189762e+000
      9.1850456656116186e-002 -2.0042745279741210e-002
      -4.0056771121320167e-002 6.4778130719214577e-001
      -2.8878061718270320e+000 -7.4751025901115964e-001
      7.5034677611512635e-001 -4.8199054499009852e-001
      -1.2090120869276570e+000 -4.9978293301374271e-001
      7.3923629510047506e-001 2.9414514559087623e-001
      -6.4966919264008671e-001 -1.0673705954400618e-002
      2.8243813968937554e+000 -3.3772309067297002e-002
      3.8777756671816443e-001 -1.6171617819138101e-001
      -1.1484852950167865e+000 5.3232956047402824e-001
      3.4063526728045002e-001 5.5054245371809107e-001
      1.2071431539559405e+000 2.4975140252119737e-001
      -2.7792702630653104e-001 4.2804391948852286e-002
      -1.5790495305634291e+000 6.9314187753943013e-001
      1.1061059014114405e-001 -8.5207695797067506e-001
      3.7002047803690680e-001 4.2944931351385263e-001
      1.4392498232895265e-001 1.2869484887614644e+000
      -3.5014541187986139e+000 -1.2553474418521993e+000
      2.2503408959330655e+000 -4.1346434935517290e-001
      -1.0045056918926250e+000 -5.8393638103354273e-001
      2.3895902842448131e+000 -8.1499594793020946e-001
      -4.2229338113144910e-001 -5.0232367882263471e-002
      -1.0057914261538822e-001 -5.0689161828174401e-002
      -4.6204304878543212e-001 7.6718586675705314e-001
      -4.3375291615734035e-001 -1.1375658403174096e+000
      5.1587470354646792e-001 1.1486187968923296e-001
      -4.8567787197186352e-002 1.1298009790638011e+000
      1.8263043001700019e+000 -7.4828507810090095e-001
      -9.6407438740032581e-001 -5.6346732646089892e-001
      -7.3154285977163336e-001 2.8117322173292009e-001
      1.3573121899496625e+000 -8.0973747834626331e-001
      6.0359696435328258e-001 -7.1044860653106806e-002</_>
    <_>
      9.1786123037262440e-002 -1.0989802344130735e-001
      6.5244009883732232e-002 -6.0905137454625691e-001
      -1.7204821139605331e-001 1.4060284381292276e-001
      6.8588815261520186e-001 1.6906634783255475e-001
      -1.1364446158294901e+000 1.4535322311024905e+000
      5.4773557277058171e-001 -6.4263172528067858e-001
      7.0188313275533334e-002 7.0490563416893337e-001
      -2.2205572635581522e-001 2.8460231045032192e-001
      3.9577351351040108e-001 1.9970433855575614e-001
      6.0933248464389622e-001 -1.1620679344183404e+000
      -2.9418049156790327e-001 1.0132493919583705e+000
      -6.2299908186378250e-001 4.6234152158286446e-001
      1.1548840260799687e+000 1.3101434013121254e+000
      -7.5025837677173834e-001 -4.0157297025658067e-001
      3.9863886989913105e-001 7.1939238265501593e-001
      6.1993030969080931e-002 9.2233490821814423e-001
      -1.2329433061658599e+000 6.4679894544508332e-001
      -4.5387059915993067e-003 -3.5768676816212130e-001
      -3.3709084664238387e-001 1.0600639320646038e-001
      -7.0485046138675600e-001 2.8758085425101204e-001
      -8.3411113498726841e-001 -9.7464438929170716e-001
      -2.8248348790503841e-001 -1.3048434811750471e+000</_></weights></my_nn>
</opencv_storage>
