<?xml version="1.0"?>
<opencv_storage>
<my_nn type_id="opencv-ml-ann-mlp">
  <layer_sizes type_id="opencv-matrix">
    <rows>1</rows>
    <cols>4</cols>
    <dt>i</dt>
    <data>
      8 10 10 4</data></layer_sizes>
  <activation_function>SIGMOID_SYM</activation_function>
  <f_param1>6.6666666666666663e-001</f_param1>
  <f_param2>1.7159000000000000e+000</f_param2>
  <min_val>-9.4999999999999996e-001</min_val>
  <max_val>9.4999999999999996e-001</max_val>
  <min_val1>-9.7999999999999998e-001</min_val1>
  <max_val1>9.7999999999999998e-001</max_val1>
  <training_params>
    <train_method>BACKPROP</train_method>
    <dw_scale>1.0000000000000001e-001</dw_scale>
    <moment_scale>1.0000000000000001e-001</moment_scale>
    <term_criteria><epsilon>9.9999997764825821e-003</epsilon>
      <iterations>1000</iterations></term_criteria></training_params>
  <input_scale>
    4.1353593012072615e-002 -6.2519969213504769e+000
    3.9852044968277663e-002 -1.3360398075615085e+000
    1.0386422602682430e-001 -5.2451434143546272e-001
    7.1423452855277373e-003 -6.3656152357265960e-001
    4.7936921384817126e-003 -1.0097912489711729e+000
    5.7064096593298545e+003 -5.9991391223297876e+000 1.
    -3.6399606635840172e-009 1. -7.1258710646353551e-012</input_scale>
  <output_scale>
    5.2631578947368418e-001 4.9999999999999994e-001
    5.2631578947368418e-001 4.9999999999999994e-001
    5.2631578947368418e-001 4.9999999999999994e-001
    5.2631578947368418e-001 4.9999999999999994e-001</output_scale>
  <inv_output_scale>
    1.8999999999999999e+000 -9.4999999999999996e-001
    1.8999999999999999e+000 -9.4999999999999996e-001
    1.8999999999999999e+000 -9.4999999999999996e-001
    1.8999999999999999e+000 -9.4999999999999996e-001</inv_output_scale>
  <weights>
    <_>
      -1.3622307212287943e+000 5.5772466958045042e-001
      -3.4766229381708197e-001 6.1289801512491970e-001
      -5.2978894770016949e-001 -4.8057269142985187e-001
      4.9174546020121701e-001 2.6966709248621046e-001
      4.8476689312250631e-001 1.2759609527278757e-002
      -2.8563144474872970e-001 3.5271589348752580e-001
      -3.9309104500875036e-001 4.8242069834925599e-001
      -4.5896483883257355e-001 2.6606191958897413e-001
      5.1637779252598048e-001 -2.3507233927019706e-002
      5.7207249687813566e-001 4.1469471033610317e-002
      9.6981739587763249e-001 -6.8682085898596079e-001
      5.0208693260905857e-001 3.7398044945966208e-001
      -1.5550018831809104e-001 6.3663079263976419e-001
      2.7046869076942942e-001 -5.7677864309102556e-001
      -1.0739103020058528e-002 -2.8680421703427156e-001
      5.4963615807948651e-001 -6.8603568121619010e-002
      1.0406030943154788e-001 -1.2392226306572686e-004
      1.3050009789605815e-001 1.1885618349151407e-001
      -3.6334524338692026e-001 2.2751287691678834e-001
      -3.6763665060852668e-001 -4.3320466762425580e-001
      1.4271172483526644e+000 -2.3667952997561142e-001
      5.4642583631780128e-001 -3.9142123875415019e-001
      -1.3226947757828675e-001 -5.4118736743087974e-002
      2.4730660555834602e-001 -4.7564988341142495e-001
      -3.4088112765044931e-001 -2.3582155647680828e-001
      2.1536901382895821e+000 -7.1189094294812838e-001
      7.7419838472092128e-001 -1.2412458716048842e+000
      5.4400833165872686e-001 7.0232105387533744e-002
      -6.0238846391346346e-001 -6.4592256156393024e-001
      -5.1462111906605679e-001 -3.1615894737012512e-001
      3.3397929852062982e-002 1.9104804803824207e-001
      1.8935379289741680e-001 1.5648711065152446e-001
      2.1063118618989629e-001 -1.6092537747741276e-001
      -1.4074948633491122e-001 -5.0646074913424204e-002
      1.3764472845361980e-001 -1.1626291372204417e-001
      6.3581131111834124e-002 -3.4161577877139512e-002
      6.6797409579140932e-002 1.4684469755265453e-002
      -1.7829948411440757e-001 -8.2328532610919991e-002
      -1.6601633917777536e-001 -1.5705015039869596e-001
      -2.0937899116132527e-001 2.7150743351737933e-001
      6.8694195335850150e-001 3.9898248672473928e-002
      -6.6529102702364021e-002 1.1647327707653475e-001
      1.4262399243176693e-001 8.4791050343811805e-002
      -1.3625208971905842e-002 -3.6530989008858827e-001
      -1.0629825727131981e-001 -4.7273290570317561e-001</_>
    <_>
      -1.0352682377284986e-002 -3.3126519442255931e-001
      -1.8174602681797888e-001 5.2671018972558137e-001
      7.0641517762039616e-003 1.7026507572419031e-001
      6.5982483147676962e-001 2.2177497750324074e-001
      8.9779841527007487e-001 -8.9128528094009035e-002
      -1.2910795482864074e-001 3.7621666335874565e-001
      2.7825924356425957e-001 -5.4533212286729849e-001
      -2.7374775215543334e-002 2.1354580848287649e-001
      -4.4314893095320257e-001 -3.0603320464591932e-001
      -3.0580832429052768e-001 3.6022427332906226e-001
      3.3073641276514111e-002 -3.1241142872081995e-001
      -2.5305621960679292e-001 4.3222505004395156e-001
      -2.8295903857305273e-003 1.6392774967664486e-001
      4.4167218649880374e-001 1.3096570649869990e-001
      3.4661820074130423e-001 -1.4417378525615002e-001
      4.7376217926595693e-001 1.4170945207941796e-001
      4.4812775999830651e-001 -6.3097113390428816e-001
      -4.1956313132433337e-001 -4.6707475515804661e-002
      -2.6898383273462440e-001 -1.4001624578512273e-001
      -4.2626059756900170e-001 -8.2323951339075330e-002
      -1.8795215180672079e-001 -2.7596688323532115e-001
      -4.0444841812204241e-001 2.5106700351702554e-001
      2.5973233258127848e-001 5.8285595663706426e-002
      8.4631751222893382e-003 6.2615517071432952e-002
      1.6505135247935598e-001 -2.6813163956010816e-001
      3.3744381857042599e-001 -1.7423121292034568e-001
      2.0059256887377315e-002 -3.3876466994492219e-002
      -7.3486117722212667e-003 -2.3858334117455005e-001
      1.0861660526816239e-001 1.4405142586682473e-001
      4.2568533864026997e-001 -2.8918207017544950e-001
      1.9583969761753886e-001 2.2468581223282230e-001
      5.0817877910366727e-001 -1.7368111538949277e-001
      -3.1997036625100861e-001 -7.3104444788874429e-002
      9.5728886529490256e-002 -1.3647076295680324e-001
      -8.3893582690754906e-002 9.6829652226668381e-002
      -4.7019064001094019e-001 2.4293691290996583e-001
      1.5417655365160388e-001 -5.4974354097117750e-001
      1.4959491503364955e-001 6.5829314234132977e-002
      -3.7140933447008773e-001 -3.6213557540368459e-002
      -3.6005812402052728e-001 1.2553172744416574e-001
      6.9956690706451413e-002 2.1302541463475722e-001
      2.9912489660423941e-001 -7.2720783251114141e-002
      -2.4494811291865742e-001 -1.2956234581096715e-001
      -2.6802850858930943e-001 -2.0409775442640246e-001
      -8.8586339716734214e-002 2.1400767177043561e-001
      -4.9739337818418017e-001 1.8826415496413504e-001
      2.9369706612860902e-001 -1.5258932289203916e-001
      7.6443554869972605e-002 1.8535727200154839e-002
      -2.3929021109351384e-001 1.2966114777214877e-001
      1.5557565830808854e-003 8.8722957055285920e-002
      1.4781354482915616e+000 2.1921539523860809e-001
      5.8426009469329694e-003 -6.3654162559029795e-002
      -1.3640287597915446e-001 -3.2783203968179286e-001
      2.3269733347448607e-001 -7.7338619420312582e-001
      4.5123755302802671e-001 -5.0361439458005897e-001</_>
    <_>
      -9.7163167929999961e-002 3.4691633490421224e-002
      -6.4866266974449360e-001 -2.7462699024067938e-001
      6.0737600012276655e-002 -4.0953921646580654e-001
      -6.2072462507194059e-001 1.1377883985334204e-001
      2.2893383702653569e-001 6.4444508600553552e-001
      -5.2511800255186991e-001 3.2223677798946393e-001
      -5.7171507086316686e-001 -4.8972513185399269e-001
      -3.2483155530715391e-001 7.6308897287157440e-001
      -4.0506156587469627e-001 -2.4537717862788030e-001
      5.0996859757112623e-001 -3.0718789230195709e-001
      4.6017734946095717e-001 2.0675930688072289e-002
      1.1126024707288756e-001 5.4777070160136021e-001
      1.6355020508236720e-001 -1.0997501593303724e-001
      -6.3511386547653226e-001 6.8075377164663353e-001
      2.6023443837483190e-001 4.5886653771345620e-001
      8.6496200384885968e-001 5.5918452600468671e-001
      -4.4904435068661630e-001 4.3070128649827150e-001
      -5.2993971715469212e-001 -6.6152244217875952e-002
      -7.4534855358826224e-001 -2.3010952868544704e-001
      2.1250186748503536e-001 4.7154391730396195e-001
      -6.6354736976461881e-001 -3.6678375205405123e-001
      -2.7206241867784747e-001 -6.0611957466668720e-001</_></weights></my_nn>
</opencv_storage>
